one,two,threen,four,five
-0.007652107460296948,0.08879589321940387,-0.16641227215493698,0.016367060040246604,-0.03473250771931121
-0.007652107405093453,0.08879589267872803,-0.1664122713709001,0.016367059927705582,-0.03473250756065046
-0.007652107572354045,0.0887958934257106,-0.1664122725276698,0.016367060131002933,-0.03473250769519413
-0.007652107483112565,0.0887958927717186,-0.16641227139507142,0.016367060054045028,-0.03473250755468598
-0.007652107219277442,0.08879589233740852,-0.1664122711416142,0.016367060044870135,-0.03473250736952271
-0.0076521072961223385,0.08879589302027172,-0.1664122719747908,0.016367060090594406,-0.034732507569675136
-0.007652107593835196,0.08879589306862026,-0.16641227214018456,0.016367060003527854,-0.03473250761336583
-0.007652107535907315,0.08879589346747152,-0.16641227268590322,0.016367060088612,-0.03473250784093947
-0.007652107493881034,0.0887958930696539,-0.16641227183443605,0.016367060340647242,-0.03473250774973993
-0.007652107390905426,0.08879589314486035,-0.16641227224996674,0.01636706003003778,-0.03473250770672574
-0.007652107487429103,0.08879589208122361,-0.16641227115744445,0.01636705998049779,-0.03473250741908795
-0.0076521075475730945,0.08879589311210112,-0.16641227250320834,0.01636706015722921,-0.03473250781466107
-0.007652107455072531,0.08879589267174644,-0.1664122712870146,0.016367059947694166,-0.03473250766040844
-0.007652107396159654,0.08879589276963172,-0.1664122710906184,0.01636705996417393,-0.03473250760750915
-0.0076521073337754075,0.08879589322110928,-0.16641227234700462,0.016367060084019114,-0.03473250762381544
-0.007652107473818513,0.08879589276026638,-0.16641227147252888,0.0163670600760874,-0.03473250753377537
-0.007652107494908939,0.08879589290625815,-0.16641227171711384,0.0163670600165636,-0.034732507483769055
-0.007652107432808005,0.08879589300727715,-0.16641227214635856,0.01636706011221371,-0.03473250789061964
-0.007652107415439564,0.08879589325946313,-0.166412272400719,0.016367060143515043,-0.034732507685612826
-0.007652107469174904,0.08879589271527764,-0.1664122713414214,0.016367059998460193,-0.03473250753976534
-0.007652107542739104,0.08879589269301619,-0.16641227134576841,0.016367060073340895,-0.034732507565633924
-0.0076521074856209645,0.08879589333134155,-0.1664122724122883,0.016367060142402926,-0.03473250773291174
-0.007652107589529252,0.08879589321256741,-0.16641227269665979,0.016367060243448594,-0.03473250758944817
-0.0076521072891452095,0.08879589272742763,-0.16641227146912593,0.01636706020619556,-0.03473250756958394
-0.007652107624610914,0.08879589321267103,-0.16641227237036482,0.01636706022484274,-0.034732507853871546
-0.0076521074274676385,0.08879589314473997,-0.1664122722272885,0.016367060062275257,-0.03473250774227434
-0.007652107487507502,0.08879589323663235,-0.16641227240516718,0.01636706017189368,-0.03473250769374644
-0.007652107327641028,0.088795892952173,-0.16641227060515307,0.016367059736042175,-0.03473250746330471
-0.0076521077374464095,0.08879589302655051,-0.16641227140823742,0.0163670600740597,-0.03473250729138187
-0.00765210735463988,0.08879589315845551,-0.1664122722674982,0.01636706013592958,-0.034732507713091595
-0.007652107577115348,0.08879589314138159,-0.16641227218410987,0.016367060185661263,-0.0347325076426707
-0.007652107499305058,0.08879589332151332,-0.1664122724889069,0.01636706013503352,-0.03473250778877328
-0.007652107419546143,0.08879589310120146,-0.16641227215720616,0.016367060082081414,-0.03473250769611516
-0.007652107398836836,0.08879589285879592,-0.16641227163702896,0.016367059814447464,-0.03473250778107705
-0.00765210735977713,0.08879589321362782,-0.16641227246590384,0.01636706020592356,-0.03473250788075928
-0.007652107540700187,0.08879589313189787,-0.16641227233342906,0.016367060064456148,-0.034732507722866096
-0.0076521075624140554,0.08879589290972557,-0.16641227253855134,0.016367059970744932,-0.03473250731542237
-0.007652107455363414,0.08879589283238098,-0.16641227150447005,0.016367059949819435,-0.0347325074862823
-0.007652107204439696,0.08879589251300754,-0.16641227127478267,0.016367059956556452,-0.03473250758896299
-0.007652107353594564,0.08879589252786747,-0.1664122712468796,0.01636705990296352,-0.034732507559442564
-0.007652107450372432,0.08879589275527991,-0.16641227165431724,0.016367060013759562,-0.03473250762357973
-0.00765210750654717,0.08879589294746383,-0.16641227181738216,0.016367060065270653,-0.034732507728006456
-0.007652107521756715,0.08879589309600312,-0.1664122719529149,0.016367060135609988,-0.03473250757528482
-0.007652107527081558,0.08879589325760125,-0.166412272343275,0.016367060131153226,-0.034732507690115696
-0.007652107411902264,0.08879589308085983,-0.16641227203313333,0.016367060183665946,-0.03473250766425002
-0.007652107315458037,0.08879589275435036,-0.16641227141614828,0.016367060051712033,-0.03473250745386308
-0.007652107540242318,0.08879589264763246,-0.16641227125350672,0.01636706005118632,-0.034732507313225025
-0.007652107392802734,0.08879589323205164,-0.16641227222767443,0.016367060099566445,-0.03473250778520068
-0.007652107451451346,0.0887958928028424,-0.16641227150613797,0.016367060027758906,-0.03473250756091897
-0.007652107477691837,0.08879589345068378,-0.1664122726562698,0.016367060190217487,-0.03473250773928591
-0.007652107483554996,0.08879589341056637,-0.16641227251358773,0.016367060019326304,-0.0347325078368472
-0.007652107431029721,0.08879589265622415,-0.16641227134025707,0.01636706005724311,-0.03473250758601358
-0.007652107623205992,0.08879589325523583,-0.1664122728004307,0.016367060214892627,-0.03473250785405043
-0.007652107564660669,0.0887958933492967,-0.1664122727888272,0.016367060213336344,-0.03473250770259019
-0.007652107442868428,0.08879589277766858,-0.16641227175642678,0.016367060094451828,-0.034732507567059395
-0.007652107511706194,0.0887958931663893,-0.16641227231607372,0.01636706001588573,-0.03473250768518288
-0.007652107516497317,0.088795893307383,-0.16641227242140477,0.016367060166478684,-0.034732507761821095
-0.007652107480088193,0.08879589300349736,-0.16641227184562565,0.016367060118008828,-0.0347325075877383
-0.007652107543009054,0.08879589334526469,-0.1664122725211349,0.016367060149997975,-0.034732507771330454
-0.007652107471325034,0.08879589340908155,-0.16641227263823402,0.01636706027089351,-0.03473250780052043
-0.007652107513780547,0.0887958933830804,-0.16641227239015907,0.016367060162307923,-0.03473250780534292
-0.007652107517970653,0.08879589339132736,-0.16641227263643135,0.0163670601153772,-0.03473250770674953
-0.007652107506136528,0.08879589313853686,-0.16641227211179127,0.016367060218850135,-0.03473250774888932
-0.007652107425386367,0.08879589297458683,-0.16641227169677056,0.016367060207163345,-0.03473250767410733
-0.007652107582229441,0.08879589264574407,-0.16641227098022743,0.01636705999537665,-0.034732507190926444
-0.007652107166157321,0.08879589283733533,-0.16641227125643507,0.016367060056895852,-0.03473250752399326
-0.007652107527602454,0.08879589324046314,-0.16641227237248551,0.016367060163968765,-0.03473250768073273
-0.007652107492939112,0.0887958933426963,-0.16641227243516762,0.016367060158381894,-0.03473250779205061
-0.007652107520842647,0.08879589314521891,-0.16641227232026048,0.01636706019321154,-0.03473250774251938
-0.007652107477519119,0.0887958929947811,-0.1664122716229438,0.01636706006091107,-0.03473250753790315
-0.007652107536519013,0.08879589316861616,-0.1664122722721467,0.0163670600099492,-0.03473250771222573
-0.007652107537880565,0.0887958930300456,-0.1664122725228725,0.016367060050827765,-0.03473250765964946
-0.007652107381536613,0.08879589338056343,-0.16641227278274698,0.016367060103818006,-0.034732507802466256
-0.007652107417920708,0.08879589313956628,-0.1664122722844039,0.016367060096906055,-0.034732507683274357
-0.007652107513356478,0.08879589283630782,-0.16641227175618759,0.01636706027976848,-0.03473250787460352
-0.007652107486229284,0.08879589291967674,-0.16641227180680715,0.01636706001521003,-0.0347325074926118
-0.0076521076357600306,0.08879589279079314,-0.16641227156669539,0.016367060146295045,-0.034732507307605284
-0.0076521074595769815,0.08879589320360391,-0.16641227228774574,0.016367060226953056,-0.03473250772590503
-0.007652107417291589,0.08879589262868086,-0.166412271293726,0.016367060032028934,-0.03473250767341548
-0.00765210744424901,0.08879589293712088,-0.1664122717365434,0.016367060087346518,-0.03473250765903618
-0.00765210749030001,0.08879589291715101,-0.16641227169937675,0.01636706014884553,-0.034732507534807375
-0.007652107538031711,0.08879589322791724,-0.166412272240498,0.01636706013699278,-0.03473250780408286
-0.007652107534966973,0.08879589283459287,-0.1664122714692538,0.016367060048404537,-0.03473250750642582
-0.0076521074472886705,0.088795892903318,-0.1664122716924292,0.01636706011981658,-0.034732507617392605
-0.007652107283166366,0.08879589247862243,-0.16641227118841354,0.016367059821230476,-0.034732507460749094
-0.0076521073565027535,0.08879589304713897,-0.1664122720295559,0.01636705997288806,-0.03473250765622901
-0.007652107445516728,0.08879589274480565,-0.16641227147523058,0.01636706014842287,-0.03473250769055465
-0.007652107401415896,0.08879589315934965,-0.16641227225311844,0.016367060131574705,-0.034732507716014056
-0.007652107436711945,0.08879589281446038,-0.16641227173537115,0.016367060039356333,-0.0347325077118184
-0.00765210746791605,0.08879589331962612,-0.1664122724267294,0.016367060131400164,-0.03473250773592432
-0.0076521075560278505,0.08879589315027564,-0.16641227201862854,0.016367060170121416,-0.03473250763737666
-0.007652107446227796,0.0887958933243872,-0.16641227274995665,0.016367060106813255,-0.034732507755387144
-0.00765210745730219,0.08879589215659094,-0.16641227103688847,0.01636705985841486,-0.034732507716766954
-0.007652107095516975,0.08879589243157517,-0.166412271141866,0.01636705995768398,-0.03473250754520503
-0.0076521075301775755,0.08879589282646248,-0.1664122710871446,0.016367059956520574,-0.03473250742906922
-0.007652107336853908,0.08879589307113081,-0.1664122720503118,0.01636706011527177,-0.03473250752884367
-0.007652107275339012,0.08879589255640455,-0.16641227109911708,0.016367059940012245,-0.03473250760186458
-0.007652107462109062,0.08879589324864239,-0.1664122722218219,0.01636706005048879,-0.034732507688663414
-0.00765210751079506,0.08879589283452315,-0.16641227128489963,0.016367060075453365,-0.03473250741520884
-0.007652107494657312,0.08879589285001388,-0.1664122719376517,0.01636706006059365,-0.03473250722781578
