one,two,threen,four,five
-0.0012732028190436191,-0.14796109339665067,-0.015028689957478886,0.018266850452933383,-0.12163089697243422
-0.0012732021626666909,-0.14796109314320158,-0.015028689952307467,0.018266849750384662,-0.12163089529296421
-0.0012732030664152558,-0.1479610943902185,-0.015028690182737241,0.01826685015486626,-0.12163089798990796
-0.0012732028023475213,-0.14796109288555015,-0.015028689512432306,0.018266850738786995,-0.12163089635917594
-0.0012732025220664335,-0.14796109354655387,-0.0150286900539554,0.01826685000615067,-0.12163089670340835
-0.0012732027154734532,-0.14796109445407946,-0.015028689918767145,0.01826684925669928,-0.12163089741732659
-0.0012732028626792763,-0.14796109473422764,-0.01502869018339607,0.018266849684181886,-0.12163089810326211
-0.0012732028222681596,-0.14796109307275296,-0.0150286882881461,0.018266849394723412,-0.12163089654389429
-0.0012732029351730022,-0.14796109487230374,-0.01502868985481946,0.018266850035995656,-0.12163089882413869
-0.001273202139334711,-0.14796109195355595,-0.01502868982376084,0.018266850806617656,-0.12163089450554834
-0.0012732028546066343,-0.14796109370367436,-0.015028689622499102,0.018266850089592068,-0.12163089721787508
-0.0012732028959960516,-0.1479610941074264,-0.0150286897837291,0.018266849660667918,-0.12163089748261416
-0.0012732035299121978,-0.14796109452343642,-0.015028689759149937,0.018266850543977396,-0.12163089709996786
-0.001273202067318659,-0.1479610934776408,-0.015028690481435094,0.018266849933229787,-0.12163089758341167
-0.0012732035012062268,-0.14796109326878573,-0.015028689155943893,0.018266850058459523,-0.12163089604049368
-0.001273203233714678,-0.14796109429701942,-0.015028689712712465,0.018266849823876607,-0.12163089664227399
-0.0012732020462083789,-0.14796109303770177,-0.015028689306092554,0.018266850353628242,-0.12163089683205165
-0.0012732033258826278,-0.147961093603786,-0.015028689738399308,0.018266850424163227,-0.12163089693176776
-0.0012732028581788196,-0.14796109408729535,-0.015028689225695335,0.01826684971019136,-0.12163089713209284
-0.0012732029761734936,-0.14796109425661966,-0.015028689543570577,0.01826684974342633,-0.12163089751301051
-0.001273203360568762,-0.1479610943618613,-0.01502869007107199,0.018266850271891566,-0.12163089782859747
-0.0012732020057436445,-0.147961092662728,-0.015028689009832672,0.018266850573413856,-0.12163089507689975
-0.001273202907304316,-0.14796109268666005,-0.015028689245707178,0.01826685087140339,-0.12163089592233711
-0.0012732030442571065,-0.14796109487966977,-0.015028690145046382,0.01826684993580396,-0.12163089856602363
-0.0012732025685109208,-0.1479610934383361,-0.015028689451396019,0.01826684974348627,-0.12163089659595275
-0.0012732029233310507,-0.1479610946690074,-0.015028690075266327,0.01826684999986079,-0.12163089827177535
-0.0012732020957876438,-0.14796109391445303,-0.015028689915836247,0.01826684956516675,-0.12163089714475231
-0.0012732025934063377,-0.14796109439259958,-0.015028689889943068,0.018266849785918696,-0.12163089809487485
-0.0012732028089768525,-0.14796109363887652,-0.015028689632290922,0.018266850227678204,-0.12163089720296699
-0.0012732026966157774,-0.14796109195401408,-0.015028687649578905,0.01826685106145312,-0.12163089434499591
-0.0012732029686066027,-0.14796109364865961,-0.015028688766409096,0.0182668495475161,-0.12163089690190461
-0.0012732027307550873,-0.14796109373065108,-0.015028689463251728,0.018266850016004376,-0.12163089742062509
-0.00127320278970235,-0.14796109442768637,-0.015028689947265871,0.0182668501233313,-0.1216308980326512
-0.0012732029192817009,-0.14796109258525686,-0.015028690013548203,0.018266851162680536,-0.12163089590742089
-0.0012732031065774987,-0.14796109524218914,-0.01502869002999722,0.018266850041694833,-0.12163089891312509
-0.0012732033595937186,-0.14796109338332164,-0.01502868936760378,0.01826685039591212,-0.12163089675382716
-0.001273201622822737,-0.14796109192239776,-0.015028690337121793,0.0182668512527969,-0.12163089525484379
-0.0012732023065442383,-0.14796109378863997,-0.015028689410101877,0.01826684968449679,-0.12163089639408814
-0.0012732030236356257,-0.14796109287474168,-0.015028689923216279,0.018266851168847617,-0.12163089634878815
-0.0012732023864299908,-0.14796109357297563,-0.015028689967115798,0.018266850085768307,-0.12163089684003932
-0.0012732025710531492,-0.14796109445853253,-0.015028689971492669,0.01826684966612659,-0.12163089801482486
-0.0012732031002519683,-0.14796109471356966,-0.015028690044179676,0.018266849997629616,-0.12163089832136813
-0.0012732016467949321,-0.1479610927227617,-0.015028689399456698,0.018266850249481492,-0.12163089573037808
-0.0012732025436099745,-0.14796109349897835,-0.015028689004154442,0.018266849980092936,-0.12163089459930444
-0.001273202376681562,-0.14796109406352717,-0.01502868956032817,0.018266849419017895,-0.12163089698045637
-0.0012732029754738028,-0.14796109426145743,-0.015028689843501721,0.018266850131128467,-0.12163089796475587
-0.0012732031475651258,-0.14796109480548972,-0.015028689886906242,0.018266849883678514,-0.12163089818714617
-0.0012732031469758144,-0.14796109499035687,-0.01502868962863671,0.018266849965382876,-0.1216308988908938
-0.001273202458720922,-0.14796109368512853,-0.015028690372429552,0.01826684967394879,-0.12163089675865056
-0.0012732030354855,-0.14796109470231805,-0.01502869000799427,0.01826684998201917,-0.12163089832322953
-0.0012732029815655612,-0.14796109436019672,-0.015028689956832524,0.0182668499142325,-0.12163089753957046
-0.0012732013812492664,-0.14796109292332119,-0.015028690555363947,0.018266850205173095,-0.12163089592807821
-0.001273203034211495,-0.14796109356056558,-0.015028689143268487,0.0182668502227307,-0.12163089702038779
-0.0012732033205715555,-0.14796109455056866,-0.015028689934442868,0.01826684978761382,-0.12163089799563502
-0.0012732030146650121,-0.14796109451692982,-0.01502868995984913,0.018266850032060012,-0.12163089795549224
-0.0012732028228030173,-0.14796109364288826,-0.01502868931443784,0.0182668501394194,-0.12163089736888325
-0.001273202695875551,-0.147961093707404,-0.01502868948341869,0.018266849864348768,-0.12163089705714424
-0.0012732024869190652,-0.14796109352034154,-0.015028688910422182,0.018266849468674205,-0.12163089570828274
-0.0012732027341981317,-0.1479610938262149,-0.015028689854863046,0.018266849726843642,-0.121630896951414
-0.001273202698839393,-0.14796109385816952,-0.015028689375433661,0.018266849608898596,-0.12163089704842148
-0.00127320291977044,-0.1479610934970329,-0.015028689279496112,0.018266849866491585,-0.12163089627247022
-0.0012732027075810666,-0.14796109348457465,-0.015028689639703871,0.01826685025418815,-0.1216308967925677
-0.0012732026821584805,-0.14796109341056818,-0.015028689349183569,0.01826685004538906,-0.12163089625052084
-0.0012732027743923967,-0.14796109448221734,-0.015028689612985905,0.018266850027083552,-0.12163089796711757
-0.0012732033474454605,-0.14796109497135593,-0.015028690019034513,0.018266849890722494,-0.12163089835455518
-0.0012732021867980917,-0.14796109230268453,-0.015028689049415365,0.018266851329989026,-0.12163089513509048
-0.0012732019207798882,-0.14796109208946104,-0.015028689484500517,0.018266851078188057,-0.12163089413538113
-0.0012732030371247131,-0.14796109354171808,-0.015028689794275385,0.01826685000081866,-0.12163089561450095
-0.0012732031505669785,-0.14796109492510398,-0.015028690008071905,0.01826685012773965,-0.121630898589134
-0.0012732006310536429,-0.14796109195072193,-0.01502868952469557,0.018266849714591207,-0.12163089614652194
-0.0012732029625857843,-0.14796109498968374,-0.015028690347738731,0.018266849177522897,-0.12163089710234032
-0.0012732030610075671,-0.1479610947680175,-0.015028690014953383,0.018266850055628864,-0.12163089833156004
-0.001273202874164504,-0.14796109402637106,-0.015028690006510024,0.018266850073820555,-0.12163089721423494
-0.001273202967467837,-0.14796109492157702,-0.015028690018650277,0.018266849982744485,-0.1216308985080292
-0.0012732018601561911,-0.14796109288548726,-0.015028689487457772,0.018266849745653582,-0.12163089464920104
-0.0012732027364567352,-0.1479610933047394,-0.015028689485530803,0.018266850644654,-0.12163089655957698
-0.001273202978529608,-0.1479610950025854,-0.015028689807380865,0.018266849950162065,-0.12163089906780239
-0.0012732029212220893,-0.14796109424533557,-0.015028689796043215,0.018266849877429863,-0.12163089763032847
-0.0012732029918802318,-0.147961094282045,-0.015028690225630827,0.018266850598757597,-0.12163089781561794
-0.0012732031969539632,-0.1479610946728177,-0.015028690245755861,0.018266849786152315,-0.12163089808239858
-0.0012732029635941409,-0.14796109393789614,-0.015028689782755043,0.01826685023008232,-0.12163089709239631
-0.0012732027309253118,-0.14796109377085806,-0.015028689463590605,0.01826684990703338,-0.12163089715713722
-0.0012732030984423848,-0.1479610941630159,-0.01502868874827809,0.01826684942308062,-0.12163089824398629
-0.0012732027101281743,-0.1479610938175936,-0.015028689766853138,0.018266850064301562,-0.12163089687395251
-0.001273202621835508,-0.147961093529423,-0.015028690759284404,0.018266849922029735,-0.1216308964869192
-0.0012732032447765774,-0.1479610941151662,-0.015028689652478297,0.01826685006360261,-0.12163089735804966
-0.0012732024206205917,-0.1479610932781302,-0.015028689707269414,0.018266850612179194,-0.12163089546615236
-0.0012732027630541212,-0.1479610939700912,-0.01502868931516022,0.018266850044050906,-0.12163089735994655
-0.0012732032614913914,-0.1479610942669152,-0.01502868988292945,0.01826685003481875,-0.12163089756639726
-0.0012732031629804034,-0.1479610921081603,-0.015028689889667563,0.01826685107334584,-0.1216308934613132
-0.0012732024436660373,-0.1479610932717115,-0.015028689521135166,0.018266850007241094,-0.12163089655969696
-0.0012732026491307823,-0.1479610927797001,-0.015028688514285399,0.01826684918004989,-0.12163089506656562
-0.0012732036095660971,-0.1479610943933314,-0.015028690119948855,0.018266849931308695,-0.12163089772017721
-0.0012732028233348133,-0.14796109470786936,-0.01502868995686323,0.01826684994894572,-0.12163089850361417
-0.0012732026747288658,-0.14796109439373484,-0.015028690168896658,0.018266849990130132,-0.12163089807110337
-0.0012732028950608273,-0.14796109432905957,-0.015028690006184862,0.01826685036184262,-0.12163089793651573
-0.0012732029577277697,-0.1479610942095472,-0.015028690184663577,0.018266850114763648,-0.1216308966465233
-0.0012732005955305404,-0.14796109170654723,-0.015028688821738368,0.01826685054980609,-0.12163089274696731
-0.001273202491507495,-0.1479610931801566,-0.015028689738477652,0.018266850739828762,-0.12163089748179226
-0.0012732026057834824,-0.1479610925554919,-0.015028690026695105,0.018266851303012536,-0.12163089574112362
